{
  "model_type": "perceptron_noise_mlp",
  "version": 1,
  "source_csv": "spice_validation/results/spice_vs_native_hybrid_fitted.csv",
  "noise_column": "native_noise",
  "noise_floor": 0.05,
  "temperature_normalization": {
    "mean": 330.0,
    "std": 24.49489742783178
  },
  "voltage_normalization": {
    "mean": 0.9,
    "std": 0.0816496580927726
  },
  "weights": {
    "W1": [
      [
        0.17755939270100515,
        -0.7038108069975235,
        0.6121256455708275,
        0.7979479205779132,
        -1.3730991068046807,
        -0.912275649445185,
        0.011081085403081095,
        -0.16339011897242067,
        0.09586413146645244,
        -0.5475659343244381,
        0.5848987582609784,
        0.5879842121498846,
        0.05441863987867147,
        0.8434828490849094,
        0.3975742439456752,
        -0.5647982390472119
      ],
      [
        0.2771444482200771,
        -0.670229961522048,
        0.5533846897766633,
        -0.2925960691696504,
        -0.13289680445130342,
        -0.4299116584269877,
        0.9066426398123038,
        -0.2585086404016774,
        -0.5030259863804852,
        -0.3920305906751158,
        0.3845958102242337,
        0.22531897750151475,
        0.2855056232613511,
        0.2621672144270803,
        1.4635621193340478,
        -0.3820168796955326
      ]
    ],
    "b1": [
      -1.5391691807402272e-06,
      -0.01984253470446702,
      0.07291825283440735,
      0.4468739017384899,
      0.005940531613476185,
      -0.017419575618926982,
      -4.605243532382255e-06,
      0.10853640366880657,
      0.29738088815392977,
      0.09546486293696795,
      -0.0274232035125657,
      0.10142607888424551,
      0.00642146079534568,
      0.13062931555324825,
      0.05597102595563476,
      0.062039781933262865
    ],
    "W2": [
      [
        -0.11245565383476996
      ],
      [
        0.09299321877405521
      ],
      [
        0.24029752382962374
      ],
      [
        0.7510920089153119
      ],
      [
        -0.17068986630717203
      ],
      [
        -0.0801942060112892
      ],
      [
        -0.3550352185141074
      ],
      [
        0.2654917626596979
      ],
      [
        0.5417144789124481
      ],
      [
        0.254483152876667
      ],
      [
        -0.04452113570447601
      ],
      [
        0.22238201369041463
      ],
      [
        -0.008023829578564033
      ],
      [
        0.2985368171543358
      ],
      [
        0.062292117361634265
      ],
      [
        0.17531015198978656
      ]
    ],
    "b2": [
      0.7487573330036731
    ]
  },
  "training": {
    "n_samples": 27,
    "hidden_dim": 16,
    "learning_rate": 0.01,
    "epochs": 6000,
    "l2": 0.0001,
    "seed": 42
  },
  "metrics": {
    "weight_mae": 0.025128427497141885,
    "weight_rmse": 0.030136163562474658,
    "noise_mae": 0.0017252481662713317,
    "noise_rmse": 0.0021001783702235257,
    "weight_target_mean": 0.8240987668078441,
    "weight_pred_mean": 0.8133766471985838
  }
}
